digraph Tree {
node [shape=box, style="filled, rounded", color="black", fontname=helvetica] ;
edge [fontname=helvetica] ;
0 [label="Petal Width [3] <= -0.59\ngini = 0.664\nsamples = 105\nvalue = [34, 32, 39]\nclass = Virginica", fillcolor="#8139e512"] ;
1 [label="gini = 0.0\nsamples = 34\nvalue = [34, 0, 0]\nclass = Setosa", fillcolor="#e58139ff"] ;
0 -> 1 [labeldistance=2.5, labelangle=45, headlabel="True"] ;
2 [label="Petal Length [2] <= 0.677\ngini = 0.495\nsamples = 71\nvalue = [0, 32, 39]\nclass = Virginica", fillcolor="#8139e52e"] ;
0 -> 2 [labeldistance=2.5, labelangle=-45, headlabel="False"] ;
3 [label="Petal Width [3] <= 0.593\ngini = 0.161\nsamples = 34\nvalue = [0, 31, 3]\nclass = Versicolor", fillcolor="#39e581e6"] ;
2 -> 3 ;
4 [label="gini = 0.0\nsamples = 30\nvalue = [0, 30, 0]\nclass = Versicolor", fillcolor="#39e581ff"] ;
3 -> 4 ;
5 [label="Sepal Width [1] <= 0.106\ngini = 0.375\nsamples = 4\nvalue = [0, 1, 3]\nclass = Virginica", fillcolor="#8139e5aa"] ;
3 -> 5 ;
6 [label="gini = 0.0\nsamples = 3\nvalue = [0, 0, 3]\nclass = Virginica", fillcolor="#8139e5ff"] ;
5 -> 6 ;
7 [label="gini = 0.0\nsamples = 1\nvalue = [0, 1, 0]\nclass = Versicolor", fillcolor="#39e581ff"] ;
5 -> 7 ;
8 [label="Petal Width [3] <= 0.725\ngini = 0.053\nsamples = 37\nvalue = [0, 1, 36]\nclass = Virginica", fillcolor="#8139e5f8"] ;
2 -> 8 ;
9 [label="Petal Width [3] <= 0.593\ngini = 0.375\nsamples = 4\nvalue = [0, 1, 3]\nclass = Virginica", fillcolor="#8139e5aa"] ;
8 -> 9 ;
10 [label="gini = 0.0\nsamples = 3\nvalue = [0, 0, 3]\nclass = Virginica", fillcolor="#8139e5ff"] ;
9 -> 10 ;
11 [label="gini = 0.0\nsamples = 1\nvalue = [0, 1, 0]\nclass = Versicolor", fillcolor="#39e581ff"] ;
9 -> 11 ;
12 [label="gini = 0.0\nsamples = 33\nvalue = [0, 0, 33]\nclass = Virginica", fillcolor="#8139e5ff"] ;
8 -> 12 ;
}